1.45179575697 0.0076893298277 0.000964480677488 0.0046401324265 -0.012177921933 -2.65733691874e-07
1.97713906905 0.00922294830976 0.000822900853179 0.00669554094247 -0.0123621259932 -5.90434389952e-05
2.36615269117 0.0115438219456 0.00047373971391 0.00799208863704 -0.0108061357856 -0.000634844916471
2.75187886576 0.00912120450628 0.000752783382576 0.0103608155909 -0.00655154867507 -0.00157924420282
2.50656028827 0.00846225650208 0.0005442454772 0.00920122415159 -0.00587688570179 -0.000955358047774
2.31619520987 0.00724811051653 0.000510797825451 0.0090905703219 -0.00688949627549 -0.000930664476796
2.44957390692 0.00730777243851 0.00110072726396 0.00878531432575 -0.00745408584187 -0.000524215499848
2.30036495045 0.00615708859525 0.000990704145476 0.00899912603945 -0.00910391609429 -0.000393081286597
2.92302110779 0.00658873114406 0.000650514617631 0.0118301118991 -0.00984456114663 0.000388949771701
2.68981092033 0.00649631263703 0.00037695669784 0.0116639220493 -0.00701877882471 -0.00129034010298
2.52029230599 0.00555451377345 0.000412893412797 0.0120704898304 -0.00892011350612 -0.00193000631418
2.54157199279 0.00388641085018 0.000241105408969 0.0114712409048 -0.00235072257841 -0.00142825250511
2.34460767747 0.00432129349164 0.00031915910258 0.010396187282 -0.00309583804889 -0.00144748054085
2.50340810495 0.00501665924331 0.000623270639706 0.0105276630425 -0.00209837232072 -0.00187774047288
3.04696394562 0.00733976636507 0.000869125815252 0.0119400896132 -0.00219875642765 -0.00215770198672
2.75905993168 0.00900271588917 0.000694473219199 0.0101539507626 -0.00215325961664 -0.00237168718968
3.08524386008 0.00929064452809 0.000759932279225 0.0112312141459 -0.0011872980065 -0.00227852981343
2.90455992505 0.0092097580554 0.00131392289756 0.0106772551775 -0.00262414307416 -0.00328950172265
1.59715304988 0.00572112466857 0.00100119308602 0.00592319856843 -0.00496966795235 -0.001788520161
1.35723305212 0.00439639685506 0.000922606834397 0.00588395205072 -0.00752703859755 -0.00158690675136
1.47748079133 0.00466953721632 0.000691720705933 0.0066600053234 -0.00773912859267 -0.00157111671804
1.50182608985 0.00409760192239 0.000922541609212 0.00620943898101 -0.00482681665055 -0.00166606854582
1.67863443609 0.00523157816519 0.00141338913414 0.00585910671938 -0.00502864798586 -0.00154584507553
1.27466503839 0.00667783657989 0.00195984628608 0.00369576113361 -0.0091363980611 -0.00197168874979
1.13238498788 0.00693045426917 0.00157392489773 0.00374151077178 -0.00847849789927 -0.00268596370544
1.45017798765 0.00799636580457 0.00133065130753 0.00511013797095 -0.00880877874936 -0.00263628143306
1.58925684523 0.00963955186681 0.000662889004048 0.00551644699227 -0.00887742650703 -0.00209694641493
1.36801062056 0.0121275497041 0.000256245937585 0.00318191455484 -0.0061444533002 -0.00197567767985
1.13053156062 0.0117213220533 0.000827962059684 0.00197365444732 -0.00667658117937 -0.00250669887008
1.25056175279 0.00627081802866 0.00362554429219 0.0026406670332 -0.00687399584205 -0.00414563712462
1.00135582925 0.00230603971686 0.00295148159383 0.004717186128 -0.00892342625835 -0.00435477517818
1.02509251639 0.00160988830726 0.00209589029056 0.00594679504556 -0.00817397338502 -0.0041364246935
-0.287786263132 -0.00449130059869 3.25482134691e-05 0.00431968232334 -0.0120201442117 -0.00173403712231
-0.195413513364 -0.00189434367406 -0.000533356300044 0.00439456784343 -0.0140026502713 -0.00129745291983
-0.482824186948 -0.00240466435848 -0.000593705220057 0.00434897958717 -0.0143164113464 -0.00269766656609
-0.412808986713 0.00222402932796 -0.000639501533022 0.00310542568738 -0.0147391070139 -0.00332236096712
2.2852993594 0.00650513751111 0.000456686246139 0.012359933784 -0.0159975107808 -0.00259260237062
2.64490172222 0.00170591425283 0.000909170178463 0.0165972074 -0.0176489518752 -0.00338239395768
3.19820531846 0.00054894198313 0.00312333719133 0.0159369779308 -0.0162594356052 -0.00232559869605
2.478893812 -0.00859572048811 0.00170224225472 0.0162357452161 0.00334415802303 -0.0048587856733
1.962311652 -0.0097145826825 0.00195811200548 0.0142424999746 0.00110521031283 -0.00459214676466
1.80824535505 -0.0106823500543 0.000549352380576 0.0156746558158 -0.00189458850419 -0.00355155775003
2.16058844597 -0.00977404166148 0.000492561759363 0.0168956917633 -0.00120836327987 -0.00359481837318
2.54801136057 -0.0086514847227 0.0027764556926 0.0162985642891 6.01333413799e-05 -0.0054582150539
2.6626014407 -0.00891206352301 0.00337515519803 0.0132938254122 0.0089998044461 -0.00388877486922
2.3729770914 -0.00751117131795 0.00300187608231 0.0124209297275 0.00641095380302 -0.00410611211981
3.58034006205 -0.00626574891456 0.00463344160925 0.0161199990337 0.0056945548648 -0.00477967005122
4.34592043842 -0.00630411917417 0.00573842147616 0.0168972839764 0.00630895936576 -0.00278090480468
3.82720477016 -0.00766323325356 0.00547210613959 0.0162919758374 0.00143022417617 -0.00262289405807
4.72540591449 -0.00832638378444 0.00667122486509 0.0197899196958 0.000776491410013 -0.003072645258
4.80981469244 -0.00128583046714 0.00809026660932 0.0132438524713 0.00271399663662 -0.0009046009566
5.36086868557 0.000340412736004 0.0099134032344 0.0125404072925 0.004230855022 -0.0010056027247
14.2961256737 0.0117378131274 0.0171121051982 0.0316949626857 0.0262710599955 0.00555950816729
5.15102942816 0.00127541438752 0.0104162487792 0.0100487764864 0.00239180877398 0.000164327870062
5.20804772991 0.00211612654006 0.0104468462841 0.0101622352705 0.0030509030685 -0.000435993346974
4.7247076482 0.00133536058406 0.0106960940897 0.00800197717704 0.00210890740396 -0.000302467175508
5.00551352369 0.00199682349871 0.0113402550408 0.0085747047284 0.00116540588702 -0.000553126525377
1.4220166642 0.00360008920174 0.00535922894743 4.87548578693e-05 -0.00312400144825 -0.00170032392893
1.70740233955 0.00346386353427 0.00518012907746 0.00144051446429 -0.00234553399197 -0.00154902053618
1.57231124012 0.00202064511508 0.00460064298071 0.00279865887041 -0.000365548627127 -0.00302645527365
1.4831606317 0.000766434753379 0.00316310422395 0.00491763755365 -0.000845201558818 -0.00306016582981
1.13888696206 -0.00222660363251 0.00265982115846 0.00564009818271 -0.00395542132292 -0.00260473468827
1.4375767002 -0.00357876308993 0.00308827024259 0.00692116118179 -0.00491644879021 -0.00198263124538
1.55647663953 -0.0034742337092 0.00353133151467 0.00632524871582 -0.00434370004793 -0.00134817173486
-1.11243341477 -0.0102254258459 -0.000745522328862 0.00373668363945 -0.0089674348133 -0.00221740676829
-1.63950057694 -0.0108424901791 -0.00118527782688 0.00221124055457 -0.00855004264936 -0.00255275177278
